digraph Tree {
node [shape=box, style="filled, rounded", color="black", fontname="helvetica"] ;
edge [fontname="helvetica"] ;
0 [label=<duration &le; 8.0<br/>gini = 0.404<br/>samples = 1579<br/>value = [1135, 444]<br/>class = 0>, fillcolor="#efb286"] ;
1 [label=<process_id &le; 20.5<br/>gini = 0.454<br/>samples = 267<br/>value = [93, 174]<br/>class = 1>, fillcolor="#a3d1f3"] ;
0 -> 1 [labeldistance=2.5, labelangle=45, headlabel="True"] ;
2 [label=<resource_id &le; 5.0<br/>gini = 0.5<br/>samples = 185<br/>value = [93, 92]<br/>class = 0>, fillcolor="#fffefd"] ;
1 -> 2 ;
3 [label=<resource_id &le; 3.0<br/>gini = 0.453<br/>samples = 141<br/>value = [49.0, 92.0]<br/>class = 1>, fillcolor="#a2d1f3"] ;
2 -> 3 ;
4 [label=<process_id &le; 11.5<br/>gini = 0.471<br/>samples = 79<br/>value = [49.0, 30.0]<br/>class = 0>, fillcolor="#f5ceb2"] ;
3 -> 4 ;
5 [label=<gini = 0.0<br/>samples = 49<br/>value = [49, 0]<br/>class = 0>, fillcolor="#e58139"] ;
4 -> 5 ;
6 [label=<gini = 0.0<br/>samples = 30<br/>value = [0, 30]<br/>class = 1>, fillcolor="#399de5"] ;
4 -> 6 ;
7 [label=<gini = 0.0<br/>samples = 62<br/>value = [0, 62]<br/>class = 1>, fillcolor="#399de5"] ;
3 -> 7 ;
8 [label=<gini = 0.0<br/>samples = 44<br/>value = [44, 0]<br/>class = 0>, fillcolor="#e58139"] ;
2 -> 8 ;
9 [label=<gini = 0.0<br/>samples = 82<br/>value = [0, 82]<br/>class = 1>, fillcolor="#399de5"] ;
1 -> 9 ;
10 [label=<process_id &le; 6.5<br/>gini = 0.327<br/>samples = 1312<br/>value = [1042, 270]<br/>class = 0>, fillcolor="#eca26c"] ;
0 -> 10 [labeldistance=2.5, labelangle=-45, headlabel="False"] ;
11 [label=<part_id &le; 3.0<br/>gini = 0.005<br/>samples = 377<br/>value = [376, 1]<br/>class = 0>, fillcolor="#e5813a"] ;
10 -> 11 ;
12 [label=<gini = 0.0<br/>samples = 376<br/>value = [376, 0]<br/>class = 0>, fillcolor="#e58139"] ;
11 -> 12 ;
13 [label=<gini = 0.0<br/>samples = 1<br/>value = [0, 1]<br/>class = 1>, fillcolor="#399de5"] ;
11 -> 13 ;
14 [label=<resource_id &le; 2.0<br/>gini = 0.41<br/>samples = 935<br/>value = [666, 269]<br/>class = 0>, fillcolor="#f0b489"] ;
10 -> 14 ;
15 [label=<process_id &le; 18.5<br/>gini = 0.387<br/>samples = 191<br/>value = [50, 141]<br/>class = 1>, fillcolor="#7fc0ee"] ;
14 -> 15 ;
16 [label=<gini = 0.0<br/>samples = 141<br/>value = [0, 141]<br/>class = 1>, fillcolor="#399de5"] ;
15 -> 16 ;
17 [label=<gini = 0.0<br/>samples = 50<br/>value = [50, 0]<br/>class = 0>, fillcolor="#e58139"] ;
15 -> 17 ;
18 [label=<process_id &le; 19.5<br/>gini = 0.285<br/>samples = 744<br/>value = [616, 128]<br/>class = 0>, fillcolor="#ea9b62"] ;
14 -> 18 ;
19 [label=<process_id &le; 16.5<br/>gini = 0.16<br/>samples = 675<br/>value = [616, 59]<br/>class = 0>, fillcolor="#e78d4c"] ;
18 -> 19 ;
20 [label=<gini = 0.0<br/>samples = 479<br/>value = [479, 0]<br/>class = 0>, fillcolor="#e58139"] ;
19 -> 20 ;
21 [label=<gini = 0.421<br/>samples = 196<br/>value = [137, 59]<br/>class = 0>, fillcolor="#f0b78e"] ;
19 -> 21 ;
22 [label=<gini = 0.0<br/>samples = 69<br/>value = [0, 69]<br/>class = 1>, fillcolor="#399de5"] ;
18 -> 22 ;
}
